[01m[K/root/catkin_ws/src/capture_camera_img/src/capture_camera_img.cpp:41:99:[m[K [01;35m[Kwarning: [m[Knon-static data member initializers only available with -std=c++11 or -std=gnu++11
     ros::Publisher marker_pub = nh.advertise<visualization_msgs::Marker>("visualization_marker", 1);
[01;32m[K                                                                                                   ^[m[K
[01m[K/root/catkin_ws/src/capture_camera_img/src/capture_camera_img.cpp:42:90:[m[K [01;35m[Kwarning: [m[Knon-static data member initializers only available with -std=c++11 or -std=gnu++11
     ros::Publisher array_pub = nh.advertise<std_msgs::Float32MultiArray>("human_angle", 1);
[01;32m[K                                                                                          ^[m[K
CMakeFiles/capture_camera_img_node.dir/src/capture_camera_img.cpp.o: In function `tf::quaternionTFToMsg(tf::Quaternion const&, geometry_msgs::Quaternion_<std::allocator<void> >&)':
capture_camera_img.cpp:(.text+0xa7): undefined reference to `ros::console::g_initialized'
capture_camera_img.cpp:(.text+0xb7): undefined reference to `ros::console::initialize()'
capture_camera_img.cpp:(.text+0x100): undefined reference to `ros::console::initializeLogLocation(ros::console::LogLocation*, std::__cxx11::basic_string<char, std::char_traits<char>, std::allocator<char> > const&, ros::console::levels::Level)'
capture_camera_img.cpp:(.text+0x13b): undefined reference to `ros::console::setLogLocationLevel(ros::console::LogLocation*, ros::console::levels::Level)'
capture_camera_img.cpp:(.text+0x145): undefined reference to `ros::console::checkLogLocationEnabled(ros::console::LogLocation*)'
capture_camera_img.cpp:(.text+0x191): undefined reference to `ros::console::print(ros::console::FilterBase*, void*, ros::console::levels::Level, char const*, int, char const*, char const*, ...)'
CMakeFiles/capture_camera_img_node.dir/src/capture_camera_img.cpp.o: In function `depth_estimater::depth_estimater()':
capture_camera_img.cpp:(.text+0x3c8): undefined reference to `ros::NodeHandle::NodeHandle(std::__cxx11::basic_string<char, std::char_traits<char>, std::allocator<char> > const&, std::map<std::__cxx11::basic_string<char, std::char_traits<char>, std::allocator<char> >, std::__cxx11::basic_string<char, std::char_traits<char>, std::allocator<char> >, std::less<std::__cxx11::basic_string<char, std::char_traits<char>, std::allocator<char> > >, std::allocator<std::pair<std::__cxx11::basic_string<char, std::char_traits<char>, std::allocator<char> > const, std::__cxx11::basic_string<char, std::char_traits<char>, std::allocator<char> > > > > const&)'
capture_camera_img.cpp:(.text+0x5e4): undefined reference to `ros::Subscriber::~Subscriber()'
capture_camera_img.cpp:(.text+0x6cd): undefined reference to `ros::Subscriber::~Subscriber()'
capture_camera_img.cpp:(.text+0x792): undefined reference to `ros::Subscriber::~Subscriber()'
capture_camera_img.cpp:(.text+0x7da): undefined reference to `ros::Subscriber::~Subscriber()'
capture_camera_img.cpp:(.text+0x828): undefined reference to `ros::Publisher::~Publisher()'
capture_camera_img.cpp:(.text+0x83d): undefined reference to `ros::Publisher::~Publisher()'
capture_camera_img.cpp:(.text+0x852): undefined reference to `ros::Subscriber::~Subscriber()'
capture_camera_img.cpp:(.text+0x86c): undefined reference to `ros::Subscriber::~Subscriber()'
capture_camera_img.cpp:(.text+0x8b4): undefined reference to `ros::NodeHandle::~NodeHandle()'
CMakeFiles/capture_camera_img_node.dir/src/capture_camera_img.cpp.o: In function `depth_estimater::~depth_estimater()':
capture_camera_img.cpp:(.text+0x901): undefined reference to `ros::Publisher::~Publisher()'
capture_camera_img.cpp:(.text+0x913): undefined reference to `ros::Publisher::~Publisher()'
capture_camera_img.cpp:(.text+0x925): undefined reference to `ros::Subscriber::~Subscriber()'
capture_camera_img.cpp:(.text+0x937): undefined reference to `ros::Subscriber::~Subscriber()'
capture_camera_img.cpp:(.text+0x967): undefined reference to `ros::NodeHandle::~NodeHandle()'
capture_camera_img.cpp:(.text+0x981): undefined reference to `ros::Publisher::~Publisher()'
capture_camera_img.cpp:(.text+0x998): undefined reference to `ros::Subscriber::~Subscriber()'
capture_camera_img.cpp:(.text+0x9af): undefined reference to `ros::Subscriber::~Subscriber()'
capture_camera_img.cpp:(.text+0x9ee): undefined reference to `ros::NodeHandle::~NodeHandle()'
CMakeFiles/capture_camera_img_node.dir/src/capture_camera_img.cpp.o: In function `mat_resizer(cv::Mat, int, int)':
capture_camera_img.cpp:(.text+0xa9a): undefined reference to `cv::Mat::ones(int, int, int)'
capture_camera_img.cpp:(.text+0xb50): undefined reference to `cv::resize(cv::_InputArray const&, cv::_OutputArray const&, cv::Size_<int>, double, double, int)'
CMakeFiles/capture_camera_img_node.dir/src/capture_camera_img.cpp.o: In function `depth_estimater::rgbImageCallback(boost::shared_ptr<sensor_msgs::Image_<std::allocator<void> > const> const&)':
capture_camera_img.cpp:(.text+0xc60): undefined reference to `ros::Rate::Rate(double)'
capture_camera_img.cpp:(.text+0xc7e): undefined reference to `cv_bridge::toCvCopy(boost::shared_ptr<sensor_msgs::Image_<std::allocator<void> > const> const&, std::__cxx11::basic_string<char, std::char_traits<char>, std::allocator<char> > const&)'
capture_camera_img.cpp:(.text+0xd62): undefined reference to `cv::resize(cv::_InputArray const&, cv::_OutputArray const&, cv::Size_<int>, double, double, int)'
capture_camera_img.cpp:(.text+0xd9e): undefined reference to `cv::HOGDescriptor::getDefaultPeopleDetector()'
capture_camera_img.cpp:(.text+0xdd0): undefined reference to `cv::HOGDescriptor::setSVMDetector(cv::_InputArray const&)'
capture_camera_img.cpp:(.text+0xeaa): undefined reference to `cv::HOGDescriptor::detectMultiScale(cv::_InputArray const&, std::vector<cv::Rect_<int>, std::allocator<cv::Rect_<int> > >&, double, cv::Size_<int>, cv::Size_<int>, double, double, bool) const'
capture_camera_img.cpp:(.text+0x1129): undefined reference to `cv::rectangle(cv::_InputOutputArray const&, cv::Point_<int>, cv::Point_<int>, cv::Scalar_<double> const&, int, int, int)'
capture_camera_img.cpp:(.text+0x12fb): undefined reference to `ros::Time::now()'
capture_camera_img.cpp:(.text+0x14fb): undefined reference to `ros::Rate::sleep()'
capture_camera_img.cpp:(.text+0x158e): undefined reference to `cv::namedWindow(cv::String const&, int)'
capture_camera_img.cpp:(.text+0x15e3): undefined reference to `cv::imshow(cv::String const&, cv::_InputArray const&)'
capture_camera_img.cpp:(.text+0x160b): undefined reference to `cv::waitKey(int)'
capture_camera_img.cpp:(.text+0x16ce): undefined reference to `ros::console::g_initialized'
capture_camera_img.cpp:(.text+0x16de): undefined reference to `ros::console::initialize()'
capture_camera_img.cpp:(.text+0x1733): undefined reference to `ros::console::initializeLogLocation(ros::console::LogLocation*, std::__cxx11::basic_string<char, std::char_traits<char>, std::allocator<char> > const&, ros::console::levels::Level)'
capture_camera_img.cpp:(.text+0x1774): undefined reference to `ros::console::setLogLocationLevel(ros::console::LogLocation*, ros::console::levels::Level)'
capture_camera_img.cpp:(.text+0x177e): undefined reference to `ros::console::checkLogLocationEnabled(ros::console::LogLocation*)'
capture_camera_img.cpp:(.text+0x17d0): undefined reference to `ros::console::print(ros::console::FilterBase*, void*, ros::console::levels::Level, char const*, int, char const*, char const*, ...)'
CMakeFiles/capture_camera_img_node.dir/src/capture_camera_img.cpp.o: In function `depth_estimater::depthImageCallback(boost::shared_ptr<sensor_msgs::Image_<std::allocator<void> > const> const&)':
capture_camera_img.cpp:(.text+0x19ca): undefined reference to `cv_bridge::toCvCopy(boost::shared_ptr<sensor_msgs::Image_<std::allocator<void> > const> const&, std::__cxx11::basic_string<char, std::char_traits<char>, std::allocator<char> > const&)'
capture_camera_img.cpp:(.text+0x1a32): undefined reference to `cv::noArray()'
capture_camera_img.cpp:(.text+0x1a90): undefined reference to `cv::normalize(cv::_InputArray const&, cv::_InputOutputArray const&, double, double, int, int, cv::_InputArray const&)'
capture_camera_img.cpp:(.text+0x1b32): undefined reference to `ros::console::g_initialized'
capture_camera_img.cpp:(.text+0x1b42): undefined reference to `ros::console::initialize()'
capture_camera_img.cpp:(.text+0x1b97): undefined reference to `ros::console::initializeLogLocation(ros::console::LogLocation*, std::__cxx11::basic_string<char, std::char_traits<char>, std::allocator<char> > const&, ros::console::levels::Level)'
capture_camera_img.cpp:(.text+0x1bd8): undefined reference to `ros::console::setLogLocationLevel(ros::console::LogLocation*, ros::console::levels::Level)'
capture_camera_img.cpp:(.text+0x1be2): undefined reference to `ros::console::checkLogLocationEnabled(ros::console::LogLocation*)'
capture_camera_img.cpp:(.text+0x1c34): undefined reference to `ros::console::print(ros::console::FilterBase*, void*, ros::console::levels::Level, char const*, int, char const*, char const*, ...)'
CMakeFiles/capture_camera_img_node.dir/src/capture_camera_img.cpp.o: In function `main':
capture_camera_img.cpp:(.text+0x1d5b): undefined reference to `ros::init(int&, char**, std::__cxx11::basic_string<char, std::char_traits<char>, std::allocator<char> > const&, unsigned int)'
capture_camera_img.cpp:(.text+0x1d8d): undefined reference to `ros::spin()'
CMakeFiles/capture_camera_img_node.dir/src/capture_camera_img.cpp.o: In function `cv::String::String(char const*)':
capture_camera_img.cpp:(.text._ZN2cv6StringC2EPKc[_ZN2cv6StringC5EPKc]+0x4d): undefined reference to `cv::String::allocate(unsigned long)'
CMakeFiles/capture_camera_img_node.dir/src/capture_camera_img.cpp.o: In function `cv::String::~String()':
capture_camera_img.cpp:(.text._ZN2cv6StringD2Ev[_ZN2cv6StringD5Ev]+0x14): undefined reference to `cv::String::deallocate()'
CMakeFiles/capture_camera_img_node.dir/src/capture_camera_img.cpp.o: In function `cv::String::operator=(cv::String const&)':
capture_camera_img.cpp:(.text._ZN2cv6StringaSERKS0_[_ZN2cv6StringaSERKS0_]+0x28): undefined reference to `cv::String::deallocate()'
CMakeFiles/capture_camera_img_node.dir/src/capture_camera_img.cpp.o: In function `cv::Mat::Mat(cv::Mat const&)':
capture_camera_img.cpp:(.text._ZN2cv3MatC2ERKS0_[_ZN2cv3MatC5ERKS0_]+0x17d): undefined reference to `cv::Mat::copySize(cv::Mat const&)'
CMakeFiles/capture_camera_img_node.dir/src/capture_camera_img.cpp.o: In function `cv::Mat::~Mat()':
capture_camera_img.cpp:(.text._ZN2cv3MatD2Ev[_ZN2cv3MatD5Ev]+0x39): undefined reference to `cv::fastFree(void*)'
CMakeFiles/capture_camera_img_node.dir/src/capture_camera_img.cpp.o: In function `cv::Mat::clone() const':
capture_camera_img.cpp:(.text._ZNK2cv3Mat5cloneEv[_ZNK2cv3Mat5cloneEv]+0x4e): undefined reference to `cv::Mat::copyTo(cv::_OutputArray const&) const'
CMakeFiles/capture_camera_img_node.dir/src/capture_camera_img.cpp.o: In function `cv::Mat::release()':
capture_camera_img.cpp:(.text._ZN2cv3Mat7releaseEv[_ZN2cv3Mat7releaseEv]+0x4b): undefined reference to `cv::Mat::deallocate()'
CMakeFiles/capture_camera_img_node.dir/src/capture_camera_img.cpp.o: In function `cv::HOGDescriptor::HOGDescriptor()':
capture_camera_img.cpp:(.text._ZN2cv13HOGDescriptorC2Ev[_ZN2cv13HOGDescriptorC5Ev]+0xd): undefined reference to `vtable for cv::HOGDescriptor'
CMakeFiles/capture_camera_img_node.dir/src/capture_camera_img.cpp.o: In function `cv::HOGDescriptor::~HOGDescriptor()':
capture_camera_img.cpp:(.text._ZN2cv13HOGDescriptorD2Ev[_ZN2cv13HOGDescriptorD5Ev]+0xe): undefined reference to `vtable for cv::HOGDescriptor'
capture_camera_img.cpp:(.text._ZN2cv13HOGDescriptorD2Ev[_ZN2cv13HOGDescriptorD5Ev]+0x25): undefined reference to `cv::UMat::~UMat()'
CMakeFiles/capture_camera_img_node.dir/src/capture_camera_img.cpp.o: In function `ros::Publisher ros::NodeHandle::advertise<visualization_msgs::Marker_<std::allocator<void> > >(std::__cxx11::basic_string<char, std::char_traits<char>, std::allocator<char> > const&, unsigned int, bool)':
capture_camera_img.cpp:(.text._ZN3ros10NodeHandle9advertiseIN18visualization_msgs7Marker_ISaIvEEEEENS_9PublisherERKNSt7__cxx1112basic_stringIcSt11char_traitsIcESaIcEEEjb[_ZN3ros10NodeHandle9advertiseIN18visualization_msgs7Marker_ISaIvEEEEENS_9PublisherERKNSt7__cxx1112basic_stringIcSt11char_traitsIcESaIcEEEjb]+0xdd): undefined reference to `ros::NodeHandle::advertise(ros::AdvertiseOptions&)'
CMakeFiles/capture_camera_img_node.dir/src/capture_camera_img.cpp.o: In function `ros::Publisher ros::NodeHandle::advertise<std_msgs::Float32MultiArray_<std::allocator<void> > >(std::__cxx11::basic_string<char, std::char_traits<char>, std::allocator<char> > const&, unsigned int, bool)':
capture_camera_img.cpp:(.text._ZN3ros10NodeHandle9advertiseIN8std_msgs18Float32MultiArray_ISaIvEEEEENS_9PublisherERKNSt7__cxx1112basic_stringIcSt11char_traitsIcESaIcEEEjb[_ZN3ros10NodeHandle9advertiseIN8std_msgs18Float32MultiArray_ISaIvEEEEENS_9PublisherERKNSt7__cxx1112basic_stringIcSt11char_traitsIcESaIcEEEjb]+0xdd): undefined reference to `ros::NodeHandle::advertise(ros::AdvertiseOptions&)'
CMakeFiles/capture_camera_img_node.dir/src/capture_camera_img.cpp.o: In function `ros::Subscriber ros::NodeHandle::subscribe<sensor_msgs::Image_<std::allocator<void> >, depth_estimater>(std::__cxx11::basic_string<char, std::char_traits<char>, std::allocator<char> > const&, unsigned int, void (depth_estimater::*)(boost::shared_ptr<sensor_msgs::Image_<std::allocator<void> > const> const&), depth_estimater*, ros::TransportHints const&)':
capture_camera_img.cpp:(.text._ZN3ros10NodeHandle9subscribeIN11sensor_msgs6Image_ISaIvEEE15depth_estimaterEENS_10SubscriberERKNSt7__cxx1112basic_stringIcSt11char_traitsIcESaIcEEEjMT0_FvRKN5boost10shared_ptrIKT_EEEPSG_RKNS_14TransportHintsE[_ZN3ros10NodeHandle9subscribeIN11sensor_msgs6Image_ISaIvEEE15depth_estimaterEENS_10SubscriberERKNSt7__cxx1112basic_stringIcSt11char_traitsIcESaIcEEEjMT0_FvRKN5boost10shared_ptrIKT_EEEPSG_RKNS_14TransportHintsE]+0x16b): undefined reference to `ros::NodeHandle::subscribe(ros::SubscribeOptions&)'
CMakeFiles/capture_camera_img_node.dir/src/capture_camera_img.cpp.o: In function `void ros::Publisher::publish<visualization_msgs::Marker_<std::allocator<void> > >(visualization_msgs::Marker_<std::allocator<void> > const&) const':
capture_camera_img.cpp:(.text._ZNK3ros9Publisher7publishIN18visualization_msgs7Marker_ISaIvEEEEEvRKT_[_ZNK3ros9Publisher7publishIN18visualization_msgs7Marker_ISaIvEEEEEvRKT_]+0x47): undefined reference to `ros::console::g_initialized'
capture_camera_img.cpp:(.text._ZNK3ros9Publisher7publishIN18visualization_msgs7Marker_ISaIvEEEEEvRKT_[_ZNK3ros9Publisher7publishIN18visualization_msgs7Marker_ISaIvEEEEEvRKT_]+0x57): undefined reference to `ros::console::initialize()'
capture_camera_img.cpp:(.text._ZNK3ros9Publisher7publishIN18visualization_msgs7Marker_ISaIvEEEEEvRKT_[_ZNK3ros9Publisher7publishIN18visualization_msgs7Marker_ISaIvEEEEEvRKT_]+0xa6): undefined reference to `ros::console::initializeLogLocation(ros::console::LogLocation*, std::__cxx11::basic_string<char, std::char_traits<char>, std::allocator<char> > const&, ros::console::levels::Level)'
capture_camera_img.cpp:(.text._ZNK3ros9Publisher7publishIN18visualization_msgs7Marker_ISaIvEEEEEvRKT_[_ZNK3ros9Publisher7publishIN18visualization_msgs7Marker_ISaIvEEEEEvRKT_]+0xe4): undefined reference to `ros::console::setLogLocationLevel(ros::console::LogLocation*, ros::console::levels::Level)'
capture_camera_img.cpp:(.text._ZNK3ros9Publisher7publishIN18visualization_msgs7Marker_ISaIvEEEEEvRKT_[_ZNK3ros9Publisher7publishIN18visualization_msgs7Marker_ISaIvEEEEEvRKT_]+0xee): undefined reference to `ros::console::checkLogLocationEnabled(ros::console::LogLocation*)'
capture_camera_img.cpp:(.text._ZNK3ros9Publisher7publishIN18visualization_msgs7Marker_ISaIvEEEEEvRKT_[_ZNK3ros9Publisher7publishIN18visualization_msgs7Marker_ISaIvEEEEEvRKT_]+0x148): undefined reference to `ros::console::print(ros::console::FilterBase*, void*, ros::console::levels::Level, char const*, int, char const*, char const*, ...)'
capture_camera_img.cpp:(.text._ZNK3ros9Publisher7publishIN18visualization_msgs7Marker_ISaIvEEEEEvRKT_[_ZNK3ros9Publisher7publishIN18visualization_msgs7Marker_ISaIvEEEEEvRKT_]+0x153): undefined reference to `ros::console::g_initialized'
capture_camera_img.cpp:(.text._ZNK3ros9Publisher7publishIN18visualization_msgs7Marker_ISaIvEEEEEvRKT_[_ZNK3ros9Publisher7publishIN18visualization_msgs7Marker_ISaIvEEEEEvRKT_]+0x163): undefined reference to `ros::console::initialize()'
capture_camera_img.cpp:(.text._ZNK3ros9Publisher7publishIN18visualization_msgs7Marker_ISaIvEEEEEvRKT_[_ZNK3ros9Publisher7publishIN18visualization_msgs7Marker_ISaIvEEEEEvRKT_]+0x1b2): undefined reference to `ros::console::initializeLogLocation(ros::console::LogLocation*, std::__cxx11::basic_string<char, std::char_traits<char>, std::allocator<char> > const&, ros::console::levels::Level)'
capture_camera_img.cpp:(.text._ZNK3ros9Publisher7publishIN18visualization_msgs7Marker_ISaIvEEEEEvRKT_[_ZNK3ros9Publisher7publishIN18visualization_msgs7Marker_ISaIvEEEEEvRKT_]+0x1f0): undefined reference to `ros::console::setLogLocationLevel(ros::console::LogLocation*, ros::console::levels::Level)'
capture_camera_img.cpp:(.text._ZNK3ros9Publisher7publishIN18visualization_msgs7Marker_ISaIvEEEEEvRKT_[_ZNK3ros9Publisher7publishIN18visualization_msgs7Marker_ISaIvEEEEEvRKT_]+0x1fa): undefined reference to `ros::console::checkLogLocationEnabled(ros::console::LogLocation*)'
capture_camera_img.cpp:(.text._ZNK3ros9Publisher7publishIN18visualization_msgs7Marker_ISaIvEEEEEvRKT_[_ZNK3ros9Publisher7publishIN18visualization_msgs7Marker_ISaIvEEEEEvRKT_]+0x24c): undefined reference to `ros::console::print(ros::console::FilterBase*, void*, ros::console::levels::Level, char const*, int, char const*, char const*, ...)'
capture_camera_img.cpp:(.text._ZNK3ros9Publisher7publishIN18visualization_msgs7Marker_ISaIvEEEEEvRKT_[_ZNK3ros9Publisher7publishIN18visualization_msgs7Marker_ISaIvEEEEEvRKT_]+0x257): undefined reference to `ros::console::g_initialized'
capture_camera_img.cpp:(.text._ZNK3ros9Publisher7publishIN18visualization_msgs7Marker_ISaIvEEEEEvRKT_[_ZNK3ros9Publisher7publishIN18visualization_msgs7Marker_ISaIvEEEEEvRKT_]+0x267): undefined reference to `ros::console::initialize()'
capture_camera_img.cpp:(.text._ZNK3ros9Publisher7publishIN18visualization_msgs7Marker_ISaIvEEEEEvRKT_[_ZNK3ros9Publisher7publishIN18visualization_msgs7Marker_ISaIvEEEEEvRKT_]+0x2b6): undefined reference to `ros::console::initializeLogLocation(ros::console::LogLocation*, std::__cxx11::basic_string<char, std::char_traits<char>, std::allocator<char> > const&, ros::console::levels::Level)'
capture_camera_img.cpp:(.text._ZNK3ros9Publisher7publishIN18visualization_msgs7Marker_ISaIvEEEEEvRKT_[_ZNK3ros9Publisher7publishIN18visualization_msgs7Marker_ISaIvEEEEEvRKT_]+0x2f4): undefined reference to `ros::console::setLogLocationLevel(ros::console::LogLocation*, ros::console::levels::Level)'
capture_camera_img.cpp:(.text._ZNK3ros9Publisher7publishIN18visualization_msgs7Marker_ISaIvEEEEEvRKT_[_ZNK3ros9Publisher7publishIN18visualization_msgs7Marker_ISaIvEEEEEvRKT_]+0x2fe): undefined reference to `ros::console::checkLogLocationEnabled(ros::console::LogLocation*)'
capture_camera_img.cpp:(.text._ZNK3ros9Publisher7publishIN18visualization_msgs7Marker_ISaIvEEEEEvRKT_[_ZNK3ros9Publisher7publishIN18visualization_msgs7Marker_ISaIvEEEEEvRKT_]+0x350): undefined reference to `ros::console::print(ros::console::FilterBase*, void*, ros::console::levels::Level, char const*, int, char const*, char const*, ...)'
capture_camera_img.cpp:(.text._ZNK3ros9Publisher7publishIN18visualization_msgs7Marker_ISaIvEEEEEvRKT_[_ZNK3ros9Publisher7publishIN18visualization_msgs7Marker_ISaIvEEEEEvRKT_]+0x371): undefined reference to `ros::Publisher::Impl::isValid() const'
capture_camera_img.cpp:(.text._ZNK3ros9Publisher7publishIN18visualization_msgs7Marker_ISaIvEEEEEvRKT_[_ZNK3ros9Publisher7publishIN18visualization_msgs7Marker_ISaIvEEEEEvRKT_]+0x383): undefined reference to `ros::console::g_initialized'
capture_camera_img.cpp:(.text._ZNK3ros9Publisher7publishIN18visualization_msgs7Marker_ISaIvEEEEEvRKT_[_ZNK3ros9Publisher7publishIN18visualization_msgs7Marker_ISaIvEEEEEvRKT_]+0x393): undefined reference to `ros::console::initialize()'
capture_camera_img.cpp:(.text._ZNK3ros9Publisher7publishIN18visualization_msgs7Marker_ISaIvEEEEEvRKT_[_ZNK3ros9Publisher7publishIN18visualization_msgs7Marker_ISaIvEEEEEvRKT_]+0x3e2): undefined reference to `ros::console::initializeLogLocation(ros::console::LogLocation*, std::__cxx11::basic_string<char, std::char_traits<char>, std::allocator<char> > const&, ros::console::levels::Level)'
capture_camera_img.cpp:(.text._ZNK3ros9Publisher7publishIN18visualization_msgs7Marker_ISaIvEEEEEvRKT_[_ZNK3ros9Publisher7publishIN18visualization_msgs7Marker_ISaIvEEEEEvRKT_]+0x420): undefined reference to `ros::console::setLogLocationLevel(ros::console::LogLocation*, ros::console::levels::Level)'
capture_camera_img.cpp:(.text._ZNK3ros9Publisher7publishIN18visualization_msgs7Marker_ISaIvEEEEEvRKT_[_ZNK3ros9Publisher7publishIN18visualization_msgs7Marker_ISaIvEEEEEvRKT_]+0x42a): undefined reference to `ros::console::checkLogLocationEnabled(ros::console::LogLocation*)'
capture_camera_img.cpp:(.text._ZNK3ros9Publisher7publishIN18visualization_msgs7Marker_ISaIvEEEEEvRKT_[_ZNK3ros9Publisher7publishIN18visualization_msgs7Marker_ISaIvEEEEEvRKT_]+0x484): undefined reference to `ros::console::print(ros::console::FilterBase*, void*, ros::console::levels::Level, char const*, int, char const*, char const*, ...)'
capture_camera_img.cpp:(.text._ZNK3ros9Publisher7publishIN18visualization_msgs7Marker_ISaIvEEEEEvRKT_[_ZNK3ros9Publisher7publishIN18visualization_msgs7Marker_ISaIvEEEEEvRKT_]+0x48f): undefined reference to `ros::console::g_initialized'
capture_camera_img.cpp:(.text._ZNK3ros9Publisher7publishIN18visualization_msgs7Marker_ISaIvEEEEEvRKT_[_ZNK3ros9Publisher7publishIN18visualization_msgs7Marker_ISaIvEEEEEvRKT_]+0x49f): undefined reference to `ros::console::initialize()'
capture_camera_img.cpp:(.text._ZNK3ros9Publisher7publishIN18visualization_msgs7Marker_ISaIvEEEEEvRKT_[_ZNK3ros9Publisher7publishIN18visualization_msgs7Marker_ISaIvEEEEEvRKT_]+0x4ee): undefined reference to `ros::console::initializeLogLocation(ros::console::LogLocation*, std::__cxx11::basic_string<char, std::char_traits<char>, std::allocator<char> > const&, ros::console::levels::Level)'
capture_camera_img.cpp:(.text._ZNK3ros9Publisher7publishIN18visualization_msgs7Marker_ISaIvEEEEEvRKT_[_ZNK3ros9Publisher7publishIN18visualization_msgs7Marker_ISaIvEEEEEvRKT_]+0x52c): undefined reference to `ros::console::setLogLocationLevel(ros::console::LogLocation*, ros::console::levels::Level)'
capture_camera_img.cpp:(.text._ZNK3ros9Publisher7publishIN18visualization_msgs7Marker_ISaIvEEEEEvRKT_[_ZNK3ros9Publisher7publishIN18visualization_msgs7Marker_ISaIvEEEEEvRKT_]+0x536): undefined reference to `ros::console::checkLogLocationEnabled(ros::console::LogLocation*)'
capture_camera_img.cpp:(.text._ZNK3ros9Publisher7publishIN18visualization_msgs7Marker_ISaIvEEEEEvRKT_[_ZNK3ros9Publisher7publishIN18visualization_msgs7Marker_ISaIvEEEEEvRKT_]+0x59f): undefined reference to `ros::console::print(ros::console::FilterBase*, void*, ros::console::levels::Level, char const*, int, char const*, char const*, ...)'
capture_camera_img.cpp:(.text._ZNK3ros9Publisher7publishIN18visualization_msgs7Marker_ISaIvEEEEEvRKT_[_ZNK3ros9Publisher7publishIN18visualization_msgs7Marker_ISaIvEEEEEvRKT_]+0x5aa): undefined reference to `ros::console::g_initialized'
capture_camera_img.cpp:(.text._ZNK3ros9Publisher7publishIN18visualization_msgs7Marker_ISaIvEEEEEvRKT_[_ZNK3ros9Publisher7publishIN18visualization_msgs7Marker_ISaIvEEEEEvRKT_]+0x5ba): undefined reference to `ros::console::initialize()'
capture_camera_img.cpp:(.text._ZNK3ros9Publisher7publishIN18visualization_msgs7Marker_ISaIvEEEEEvRKT_[_ZNK3ros9Publisher7publishIN18visualization_msgs7Marker_ISaIvEEEEEvRKT_]+0x609): undefined reference to `ros::console::initializeLogLocation(ros::console::LogLocation*, std::__cxx11::basic_string<char, std::char_traits<char>, std::allocator<char> > const&, ros::console::levels::Level)'
capture_camera_img.cpp:(.text._ZNK3ros9Publisher7publishIN18visualization_msgs7Marker_ISaIvEEEEEvRKT_[_ZNK3ros9Publisher7publishIN18visualization_msgs7Marker_ISaIvEEEEEvRKT_]+0x647): undefined reference to `ros::console::setLogLocationLevel(ros::console::LogLocation*, ros::console::levels::Level)'
capture_camera_img.cpp:(.text._ZNK3ros9Publisher7publishIN18visualization_msgs7Marker_ISaIvEEEEEvRKT_[_ZNK3ros9Publisher7publishIN18visualization_msgs7Marker_ISaIvEEEEEvRKT_]+0x651): undefined reference to `ros::console::checkLogLocationEnabled(ros::console::LogLocation*)'
capture_camera_img.cpp:(.text._ZNK3ros9Publisher7publishIN18visualization_msgs7Marker_ISaIvEEEEEvRKT_[_ZNK3ros9Publisher7publishIN18visualization_msgs7Marker_ISaIvEEEEEvRKT_]+0x6a3): undefined reference to `ros::console::print(ros::console::FilterBase*, void*, ros::console::levels::Level, char const*, int, char const*, char const*, ...)'
capture_camera_img.cpp:(.text._ZNK3ros9Publisher7publishIN18visualization_msgs7Marker_ISaIvEEEEEvRKT_[_ZNK3ros9Publisher7publishIN18visualization_msgs7Marker_ISaIvEEEEEvRKT_]+0x7b7): undefined reference to `ros::console::g_initialized'
capture_camera_img.cpp:(.text._ZNK3ros9Publisher7publishIN18visualization_msgs7Marker_ISaIvEEEEEvRKT_[_ZNK3ros9Publisher7publishIN18visualization_msgs7Marker_ISaIvEEEEEvRKT_]+0x7c7): undefined reference to `ros::console::initialize()'
capture_camera_img.cpp:(.text._ZNK3ros9Publisher7publishIN18visualization_msgs7Marker_ISaIvEEEEEvRKT_[_ZNK3ros9Publisher7publishIN18visualization_msgs7Marker_ISaIvEEEEEvRKT_]+0x816): undefined reference to `ros::console::initializeLogLocation(ros::console::LogLocation*, std::__cxx11::basic_string<char, std::char_traits<char>, std::allocator<char> > const&, ros::console::levels::Level)'
capture_camera_img.cpp:(.text._ZNK3ros9Publisher7publishIN18visualization_msgs7Marker_ISaIvEEEEEvRKT_[_ZNK3ros9Publisher7publishIN18visualization_msgs7Marker_ISaIvEEEEEvRKT_]+0x854): undefined reference to `ros::console::setLogLocationLevel(ros::console::LogLocation*, ros::console::levels::Level)'
capture_camera_img.cpp:(.text._ZNK3ros9Publisher7publishIN18visualization_msgs7Marker_ISaIvEEEEEvRKT_[_ZNK3ros9Publisher7publishIN18visualization_msgs7Marker_ISaIvEEEEEvRKT_]+0x85e): undefined reference to `ros::console::checkLogLocationEnabled(ros::console::LogLocation*)'
capture_camera_img.cpp:(.text._ZNK3ros9Publisher7publishIN18visualization_msgs7Marker_ISaIvEEEEEvRKT_[_ZNK3ros9Publisher7publishIN18visualization_msgs7Marker_ISaIvEEEEEvRKT_]+0x8b8): undefined reference to `ros::console::print(ros::console::FilterBase*, void*, ros::console::levels::Level, char const*, int, char const*, char const*, ...)'
capture_camera_img.cpp:(.text._ZNK3ros9Publisher7publishIN18visualization_msgs7Marker_ISaIvEEEEEvRKT_[_ZNK3ros9Publisher7publishIN18visualization_msgs7Marker_ISaIvEEEEEvRKT_]+0x8c3): undefined reference to `ros::console::g_initialized'
capture_camera_img.cpp:(.text._ZNK3ros9Publisher7publishIN18visualization_msgs7Marker_ISaIvEEEEEvRKT_[_ZNK3ros9Publisher7publishIN18visualization_msgs7Marker_ISaIvEEEEEvRKT_]+0x8d3): undefined reference to `ros::console::initialize()'
capture_camera_img.cpp:(.text._ZNK3ros9Publisher7publishIN18visualization_msgs7Marker_ISaIvEEEEEvRKT_[_ZNK3ros9Publisher7publishIN18visualization_msgs7Marker_ISaIvEEEEEvRKT_]+0x922): undefined reference to `ros::console::initializeLogLocation(ros::console::LogLocation*, std::__cxx11::basic_string<char, std::char_traits<char>, std::allocator<char> > const&, ros::console::levels::Level)'
capture_camera_img.cpp:(.text._ZNK3ros9Publisher7publishIN18visualization_msgs7Marker_ISaIvEEEEEvRKT_[_ZNK3ros9Publisher7publishIN18visualization_msgs7Marker_ISaIvEEEEEvRKT_]+0x960): undefined reference to `ros::console::setLogLocationLevel(ros::console::LogLocation*, ros::console::levels::Level)'
capture_camera_img.cpp:(.text._ZNK3ros9Publisher7publishIN18visualization_msgs7Marker_ISaIvEEEEEvRKT_[_ZNK3ros9Publisher7publishIN18visualization_msgs7Marker_ISaIvEEEEEvRKT_]+0x96a): undefined reference to `ros::console::checkLogLocationEnabled(ros::console::LogLocation*)'
capture_camera_img.cpp:(.text._ZNK3ros9Publisher7publishIN18visualization_msgs7Marker_ISaIvEEEEEvRKT_[_ZNK3ros9Publisher7publishIN18visualization_msgs7Marker_ISaIvEEEEEvRKT_]+0xa26): undefined reference to `ros::console::print(ros::console::FilterBase*, void*, ros::console::levels::Level, char const*, int, char const*, char const*, ...)'
capture_camera_img.cpp:(.text._ZNK3ros9Publisher7publishIN18visualization_msgs7Marker_ISaIvEEEEEvRKT_[_ZNK3ros9Publisher7publishIN18visualization_msgs7Marker_ISaIvEEEEEvRKT_]+0xa31): undefined reference to `ros::console::g_initialized'
capture_camera_img.cpp:(.text._ZNK3ros9Publisher7publishIN18visualization_msgs7Marker_ISaIvEEEEEvRKT_[_ZNK3ros9Publisher7publishIN18visualization_msgs7Marker_ISaIvEEEEEvRKT_]+0xa41): undefined reference to `ros::console::initialize()'
capture_camera_img.cpp:(.text._ZNK3ros9Publisher7publishIN18visualization_msgs7Marker_ISaIvEEEEEvRKT_[_ZNK3ros9Publisher7publishIN18visualization_msgs7Marker_ISaIvEEEEEvRKT_]+0xa90): undefined reference to `ros::console::initializeLogLocation(ros::console::LogLocation*, std::__cxx11::basic_string<char, std::char_traits<char>, std::allocator<char> > const&, ros::console::levels::Level)'
capture_camera_img.cpp:(.text._ZNK3ros9Publisher7publishIN18visualization_msgs7Marker_ISaIvEEEEEvRKT_[_ZNK3ros9Publisher7publishIN18visualization_msgs7Marker_ISaIvEEEEEvRKT_]+0xace): undefined reference to `ros::console::setLogLocationLevel(ros::console::LogLocation*, ros::console::levels::Level)'
capture_camera_img.cpp:(.text._ZNK3ros9Publisher7publishIN18visualization_msgs7Marker_ISaIvEEEEEvRKT_[_ZNK3ros9Publisher7publishIN18visualization_msgs7Marker_ISaIvEEEEEvRKT_]+0xad8): undefined reference to `ros::console::checkLogLocationEnabled(ros::console::LogLocation*)'
capture_camera_img.cpp:(.text._ZNK3ros9Publisher7publishIN18visualization_msgs7Marker_ISaIvEEEEEvRKT_[_ZNK3ros9Publisher7publishIN18visualization_msgs7Marker_ISaIvEEEEEvRKT_]+0xb2a): undefined reference to `ros::console::print(ros::console::FilterBase*, void*, ros::console::levels::Level, char const*, int, char const*, char const*, ...)'
capture_camera_img.cpp:(.text._ZNK3ros9Publisher7publishIN18visualization_msgs7Marker_ISaIvEEEEEvRKT_[_ZNK3ros9Publisher7publishIN18visualization_msgs7Marker_ISaIvEEEEEvRKT_]+0xbfc): undefined reference to `ros::Publisher::publish(boost::function<ros::SerializedMessage ()> const&, ros::SerializedMessage&) const'
CMakeFiles/capture_camera_img_node.dir/src/capture_camera_img.cpp.o: In function `void ros::Publisher::publish<std_msgs::Float32MultiArray_<std::allocator<void> > >(std_msgs::Float32MultiArray_<std::allocator<void> > const&) const':
capture_camera_img.cpp:(.text._ZNK3ros9Publisher7publishIN8std_msgs18Float32MultiArray_ISaIvEEEEEvRKT_[_ZNK3ros9Publisher7publishIN8std_msgs18Float32MultiArray_ISaIvEEEEEvRKT_]+0x47): undefined reference to `ros::console::g_initialized'
capture_camera_img.cpp:(.text._ZNK3ros9Publisher7publishIN8std_msgs18Float32MultiArray_ISaIvEEEEEvRKT_[_ZNK3ros9Publisher7publishIN8std_msgs18Float32MultiArray_ISaIvEEEEEvRKT_]+0x57): undefined reference to `ros::console::initialize()'
capture_camera_img.cpp:(.text._ZNK3ros9Publisher7publishIN8std_msgs18Float32MultiArray_ISaIvEEEEEvRKT_[_ZNK3ros9Publisher7publishIN8std_msgs18Float32MultiArray_ISaIvEEEEEvRKT_]+0xa6): undefined reference to `ros::console::initializeLogLocation(ros::console::LogLocation*, std::__cxx11::basic_string<char, std::char_traits<char>, std::allocator<char> > const&, ros::console::levels::Level)'
capture_camera_img.cpp:(.text._ZNK3ros9Publisher7publishIN8std_msgs18Float32MultiArray_ISaIvEEEEEvRKT_[_ZNK3ros9Publisher7publishIN8std_msgs18Float32MultiArray_ISaIvEEEEEvRKT_]+0xe4): undefined reference to `ros::console::setLogLocationLevel(ros::console::LogLocation*, ros::console::levels::Level)'
capture_camera_img.cpp:(.text._ZNK3ros9Publisher7publishIN8std_msgs18Float32MultiArray_ISaIvEEEEEvRKT_[_ZNK3ros9Publisher7publishIN8std_msgs18Float32MultiArray_ISaIvEEEEEvRKT_]+0xee): undefined reference to `ros::console::checkLogLocationEnabled(ros::console::LogLocation*)'
capture_camera_img.cpp:(.text._ZNK3ros9Publisher7publishIN8std_msgs18Float32MultiArray_ISaIvEEEEEvRKT_[_ZNK3ros9Publisher7publishIN8std_msgs18Float32MultiArray_ISaIvEEEEEvRKT_]+0x148): undefined reference to `ros::console::print(ros::console::FilterBase*, void*, ros::console::levels::Level, char const*, int, char const*, char const*, ...)'
capture_camera_img.cpp:(.text._ZNK3ros9Publisher7publishIN8std_msgs18Float32MultiArray_ISaIvEEEEEvRKT_[_ZNK3ros9Publisher7publishIN8std_msgs18Float32MultiArray_ISaIvEEEEEvRKT_]+0x153): undefined reference to `ros::console::g_initialized'
capture_camera_img.cpp:(.text._ZNK3ros9Publisher7publishIN8std_msgs18Float32MultiArray_ISaIvEEEEEvRKT_[_ZNK3ros9Publisher7publishIN8std_msgs18Float32MultiArray_ISaIvEEEEEvRKT_]+0x163): undefined reference to `ros::console::initialize()'
capture_camera_img.cpp:(.text._ZNK3ros9Publisher7publishIN8std_msgs18Float32MultiArray_ISaIvEEEEEvRKT_[_ZNK3ros9Publisher7publishIN8std_msgs18Float32MultiArray_ISaIvEEEEEvRKT_]+0x1b2): undefined reference to `ros::console::initializeLogLocation(ros::console::LogLocation*, std::__cxx11::basic_string<char, std::char_traits<char>, std::allocator<char> > const&, ros::console::levels::Level)'
capture_camera_img.cpp:(.text._ZNK3ros9Publisher7publishIN8std_msgs18Float32MultiArray_ISaIvEEEEEvRKT_[_ZNK3ros9Publisher7publishIN8std_msgs18Float32MultiArray_ISaIvEEEEEvRKT_]+0x1f0): undefined reference to `ros::console::setLogLocationLevel(ros::console::LogLocation*, ros::console::levels::Level)'
capture_camera_img.cpp:(.text._ZNK3ros9Publisher7publishIN8std_msgs18Float32MultiArray_ISaIvEEEEEvRKT_[_ZNK3ros9Publisher7publishIN8std_msgs18Float32MultiArray_ISaIvEEEEEvRKT_]+0x1fa): undefined reference to `ros::console::checkLogLocationEnabled(ros::console::LogLocation*)'
capture_camera_img.cpp:(.text._ZNK3ros9Publisher7publishIN8std_msgs18Float32MultiArray_ISaIvEEEEEvRKT_[_ZNK3ros9Publisher7publishIN8std_msgs18Float32MultiArray_ISaIvEEEEEvRKT_]+0x24c): undefined reference to `ros::console::print(ros::console::FilterBase*, void*, ros::console::levels::Level, char const*, int, char const*, char const*, ...)'
capture_camera_img.cpp:(.text._ZNK3ros9Publisher7publishIN8std_msgs18Float32MultiArray_ISaIvEEEEEvRKT_[_ZNK3ros9Publisher7publishIN8std_msgs18Float32MultiArray_ISaIvEEEEEvRKT_]+0x257): undefined reference to `ros::console::g_initialized'
capture_camera_img.cpp:(.text._ZNK3ros9Publisher7publishIN8std_msgs18Float32MultiArray_ISaIvEEEEEvRKT_[_ZNK3ros9Publisher7publishIN8std_msgs18Float32MultiArray_ISaIvEEEEEvRKT_]+0x267): undefined reference to `ros::console::initialize()'
capture_camera_img.cpp:(.text._ZNK3ros9Publisher7publishIN8std_msgs18Float32MultiArray_ISaIvEEEEEvRKT_[_ZNK3ros9Publisher7publishIN8std_msgs18Float32MultiArray_ISaIvEEEEEvRKT_]+0x2b6): undefined reference to `ros::console::initializeLogLocation(ros::console::LogLocation*, std::__cxx11::basic_string<char, std::char_traits<char>, std::allocator<char> > const&, ros::console::levels::Level)'
capture_camera_img.cpp:(.text._ZNK3ros9Publisher7publishIN8std_msgs18Float32MultiArray_ISaIvEEEEEvRKT_[_ZNK3ros9Publisher7publishIN8std_msgs18Float32MultiArray_ISaIvEEEEEvRKT_]+0x2f4): undefined reference to `ros::console::setLogLocationLevel(ros::console::LogLocation*, ros::console::levels::Level)'
capture_camera_img.cpp:(.text._ZNK3ros9Publisher7publishIN8std_msgs18Float32MultiArray_ISaIvEEEEEvRKT_[_ZNK3ros9Publisher7publishIN8std_msgs18Float32MultiArray_ISaIvEEEEEvRKT_]+0x2fe): undefined reference to `ros::console::checkLogLocationEnabled(ros::console::LogLocation*)'
capture_camera_img.cpp:(.text._ZNK3ros9Publisher7publishIN8std_msgs18Float32MultiArray_ISaIvEEEEEvRKT_[_ZNK3ros9Publisher7publishIN8std_msgs18Float32MultiArray_ISaIvEEEEEvRKT_]+0x350): undefined reference to `ros::console::print(ros::console::FilterBase*, void*, ros::console::levels::Level, char const*, int, char const*, char const*, ...)'
capture_camera_img.cpp:(.text._ZNK3ros9Publisher7publishIN8std_msgs18Float32MultiArray_ISaIvEEEEEvRKT_[_ZNK3ros9Publisher7publishIN8std_msgs18Float32MultiArray_ISaIvEEEEEvRKT_]+0x371): undefined reference to `ros::Publisher::Impl::isValid() const'
capture_camera_img.cpp:(.text._ZNK3ros9Publisher7publishIN8std_msgs18Float32MultiArray_ISaIvEEEEEvRKT_[_ZNK3ros9Publisher7publishIN8std_msgs18Float32MultiArray_ISaIvEEEEEvRKT_]+0x383): undefined reference to `ros::console::g_initialized'
capture_camera_img.cpp:(.text._ZNK3ros9Publisher7publishIN8std_msgs18Float32MultiArray_ISaIvEEEEEvRKT_[_ZNK3ros9Publisher7publishIN8std_msgs18Float32MultiArray_ISaIvEEEEEvRKT_]+0x393): undefined reference to `ros::console::initialize()'
capture_camera_img.cpp:(.text._ZNK3ros9Publisher7publishIN8std_msgs18Float32MultiArray_ISaIvEEEEEvRKT_[_ZNK3ros9Publisher7publishIN8std_msgs18Float32MultiArray_ISaIvEEEEEvRKT_]+0x3e2): undefined reference to `ros::console::initializeLogLocation(ros::console::LogLocation*, std::__cxx11::basic_string<char, std::char_traits<char>, std::allocator<char> > const&, ros::console::levels::Level)'
capture_camera_img.cpp:(.text._ZNK3ros9Publisher7publishIN8std_msgs18Float32MultiArray_ISaIvEEEEEvRKT_[_ZNK3ros9Publisher7publishIN8std_msgs18Float32MultiArray_ISaIvEEEEEvRKT_]+0x420): undefined reference to `ros::console::setLogLocationLevel(ros::console::LogLocation*, ros::console::levels::Level)'
capture_camera_img.cpp:(.text._ZNK3ros9Publisher7publishIN8std_msgs18Float32MultiArray_ISaIvEEEEEvRKT_[_ZNK3ros9Publisher7publishIN8std_msgs18Float32MultiArray_ISaIvEEEEEvRKT_]+0x42a): undefined reference to `ros::console::checkLogLocationEnabled(ros::console::LogLocation*)'
capture_camera_img.cpp:(.text._ZNK3ros9Publisher7publishIN8std_msgs18Float32MultiArray_ISaIvEEEEEvRKT_[_ZNK3ros9Publisher7publishIN8std_msgs18Float32MultiArray_ISaIvEEEEEvRKT_]+0x484): undefined reference to `ros::console::print(ros::console::FilterBase*, void*, ros::console::levels::Level, char const*, int, char const*, char const*, ...)'
capture_camera_img.cpp:(.text._ZNK3ros9Publisher7publishIN8std_msgs18Float32MultiArray_ISaIvEEEEEvRKT_[_ZNK3ros9Publisher7publishIN8std_msgs18Float32MultiArray_ISaIvEEEEEvRKT_]+0x48f): undefined reference to `ros::console::g_initialized'
capture_camera_img.cpp:(.text._ZNK3ros9Publisher7publishIN8std_msgs18Float32MultiArray_ISaIvEEEEEvRKT_[_ZNK3ros9Publisher7publishIN8std_msgs18Float32MultiArray_ISaIvEEEEEvRKT_]+0x49f): undefined reference to `ros::console::initialize()'
capture_camera_img.cpp:(.text._ZNK3ros9Publisher7publishIN8std_msgs18Float32MultiArray_ISaIvEEEEEvRKT_[_ZNK3ros9Publisher7publishIN8std_msgs18Float32MultiArray_ISaIvEEEEEvRKT_]+0x4ee): undefined reference to `ros::console::initializeLogLocation(ros::console::LogLocation*, std::__cxx11::basic_string<char, std::char_traits<char>, std::allocator<char> > const&, ros::console::levels::Level)'
capture_camera_img.cpp:(.text._ZNK3ros9Publisher7publishIN8std_msgs18Float32MultiArray_ISaIvEEEEEvRKT_[_ZNK3ros9Publisher7publishIN8std_msgs18Float32MultiArray_ISaIvEEEEEvRKT_]+0x52c): undefined reference to `ros::console::setLogLocationLevel(ros::console::LogLocation*, ros::console::levels::Level)'
capture_camera_img.cpp:(.text._ZNK3ros9Publisher7publishIN8std_msgs18Float32MultiArray_ISaIvEEEEEvRKT_[_ZNK3ros9Publisher7publishIN8std_msgs18Float32MultiArray_ISaIvEEEEEvRKT_]+0x536): undefined reference to `ros::console::checkLogLocationEnabled(ros::console::LogLocation*)'
capture_camera_img.cpp:(.text._ZNK3ros9Publisher7publishIN8std_msgs18Float32MultiArray_ISaIvEEEEEvRKT_[_ZNK3ros9Publisher7publishIN8std_msgs18Float32MultiArray_ISaIvEEEEEvRKT_]+0x59f): undefined reference to `ros::console::print(ros::console::FilterBase*, void*, ros::console::levels::Level, char const*, int, char const*, char const*, ...)'
capture_camera_img.cpp:(.text._ZNK3ros9Publisher7publishIN8std_msgs18Float32MultiArray_ISaIvEEEEEvRKT_[_ZNK3ros9Publisher7publishIN8std_msgs18Float32MultiArray_ISaIvEEEEEvRKT_]+0x5aa): undefined reference to `ros::console::g_initialized'
capture_camera_img.cpp:(.text._ZNK3ros9Publisher7publishIN8std_msgs18Float32MultiArray_ISaIvEEEEEvRKT_[_ZNK3ros9Publisher7publishIN8std_msgs18Float32MultiArray_ISaIvEEEEEvRKT_]+0x5ba): undefined reference to `ros::console::initialize()'
capture_camera_img.cpp:(.text._ZNK3ros9Publisher7publishIN8std_msgs18Float32MultiArray_ISaIvEEEEEvRKT_[_ZNK3ros9Publisher7publishIN8std_msgs18Float32MultiArray_ISaIvEEEEEvRKT_]+0x609): undefined reference to `ros::console::initializeLogLocation(ros::console::LogLocation*, std::__cxx11::basic_string<char, std::char_traits<char>, std::allocator<char> > const&, ros::console::levels::Level)'
capture_camera_img.cpp:(.text._ZNK3ros9Publisher7publishIN8std_msgs18Float32MultiArray_ISaIvEEEEEvRKT_[_ZNK3ros9Publisher7publishIN8std_msgs18Float32MultiArray_ISaIvEEEEEvRKT_]+0x647): undefined reference to `ros::console::setLogLocationLevel(ros::console::LogLocation*, ros::console::levels::Level)'
capture_camera_img.cpp:(.text._ZNK3ros9Publisher7publishIN8std_msgs18Float32MultiArray_ISaIvEEEEEvRKT_[_ZNK3ros9Publisher7publishIN8std_msgs18Float32MultiArray_ISaIvEEEEEvRKT_]+0x651): undefined reference to `ros::console::checkLogLocationEnabled(ros::console::LogLocation*)'
capture_camera_img.cpp:(.text._ZNK3ros9Publisher7publishIN8std_msgs18Float32MultiArray_ISaIvEEEEEvRKT_[_ZNK3ros9Publisher7publishIN8std_msgs18Float32MultiArray_ISaIvEEEEEvRKT_]+0x6a3): undefined reference to `ros::console::print(ros::console::FilterBase*, void*, ros::console::levels::Level, char const*, int, char const*, char const*, ...)'
capture_camera_img.cpp:(.text._ZNK3ros9Publisher7publishIN8std_msgs18Float32MultiArray_ISaIvEEEEEvRKT_[_ZNK3ros9Publisher7publishIN8std_msgs18Float32MultiArray_ISaIvEEEEEvRKT_]+0x7b7): undefined reference to `ros::console::g_initialized'
capture_camera_img.cpp:(.text._ZNK3ros9Publisher7publishIN8std_msgs18Float32MultiArray_ISaIvEEEEEvRKT_[_ZNK3ros9Publisher7publishIN8std_msgs18Float32MultiArray_ISaIvEEEEEvRKT_]+0x7c7): undefined reference to `ros::console::initialize()'
capture_camera_img.cpp:(.text._ZNK3ros9Publisher7publishIN8std_msgs18Float32MultiArray_ISaIvEEEEEvRKT_[_ZNK3ros9Publisher7publishIN8std_msgs18Float32MultiArray_ISaIvEEEEEvRKT_]+0x816): undefined reference to `ros::console::initializeLogLocation(ros::console::LogLocation*, std::__cxx11::basic_string<char, std::char_traits<char>, std::allocator<char> > const&, ros::console::levels::Level)'
capture_camera_img.cpp:(.text._ZNK3ros9Publisher7publishIN8std_msgs18Float32MultiArray_ISaIvEEEEEvRKT_[_ZNK3ros9Publisher7publishIN8std_msgs18Float32MultiArray_ISaIvEEEEEvRKT_]+0x854): undefined reference to `ros::console::setLogLocationLevel(ros::console::LogLocation*, ros::console::levels::Level)'
capture_camera_img.cpp:(.text._ZNK3ros9Publisher7publishIN8std_msgs18Float32MultiArray_ISaIvEEEEEvRKT_[_ZNK3ros9Publisher7publishIN8std_msgs18Float32MultiArray_ISaIvEEEEEvRKT_]+0x85e): undefined reference to `ros::console::checkLogLocationEnabled(ros::console::LogLocation*)'
capture_camera_img.cpp:(.text._ZNK3ros9Publisher7publishIN8std_msgs18Float32MultiArray_ISaIvEEEEEvRKT_[_ZNK3ros9Publisher7publishIN8std_msgs18Float32MultiArray_ISaIvEEEEEvRKT_]+0x8b8): undefined reference to `ros::console::print(ros::console::FilterBase*, void*, ros::console::levels::Level, char const*, int, char const*, char const*, ...)'
capture_camera_img.cpp:(.text._ZNK3ros9Publisher7publishIN8std_msgs18Float32MultiArray_ISaIvEEEEEvRKT_[_ZNK3ros9Publisher7publishIN8std_msgs18Float32MultiArray_ISaIvEEEEEvRKT_]+0x8c3): undefined reference to `ros::console::g_initialized'
capture_camera_img.cpp:(.text._ZNK3ros9Publisher7publishIN8std_msgs18Float32MultiArray_ISaIvEEEEEvRKT_[_ZNK3ros9Publisher7publishIN8std_msgs18Float32MultiArray_ISaIvEEEEEvRKT_]+0x8d3): undefined reference to `ros::console::initialize()'
capture_camera_img.cpp:(.text._ZNK3ros9Publisher7publishIN8std_msgs18Float32MultiArray_ISaIvEEEEEvRKT_[_ZNK3ros9Publisher7publishIN8std_msgs18Float32MultiArray_ISaIvEEEEEvRKT_]+0x922): undefined reference to `ros::console::initializeLogLocation(ros::console::LogLocation*, std::__cxx11::basic_string<char, std::char_traits<char>, std::allocator<char> > const&, ros::console::levels::Level)'
capture_camera_img.cpp:(.text._ZNK3ros9Publisher7publishIN8std_msgs18Float32MultiArray_ISaIvEEEEEvRKT_[_ZNK3ros9Publisher7publishIN8std_msgs18Float32MultiArray_ISaIvEEEEEvRKT_]+0x960): undefined reference to `ros::console::setLogLocationLevel(ros::console::LogLocation*, ros::console::levels::Level)'
capture_camera_img.cpp:(.text._ZNK3ros9Publisher7publishIN8std_msgs18Float32MultiArray_ISaIvEEEEEvRKT_[_ZNK3ros9Publisher7publishIN8std_msgs18Float32MultiArray_ISaIvEEEEEvRKT_]+0x96a): undefined reference to `ros::console::checkLogLocationEnabled(ros::console::LogLocation*)'
capture_camera_img.cpp:(.text._ZNK3ros9Publisher7publishIN8std_msgs18Float32MultiArray_ISaIvEEEEEvRKT_[_ZNK3ros9Publisher7publishIN8std_msgs18Float32MultiArray_ISaIvEEEEEvRKT_]+0xa26): undefined reference to `ros::console::print(ros::console::FilterBase*, void*, ros::console::levels::Level, char const*, int, char const*, char const*, ...)'
capture_camera_img.cpp:(.text._ZNK3ros9Publisher7publishIN8std_msgs18Float32MultiArray_ISaIvEEEEEvRKT_[_ZNK3ros9Publisher7publishIN8std_msgs18Float32MultiArray_ISaIvEEEEEvRKT_]+0xa31): undefined reference to `ros::console::g_initialized'
capture_camera_img.cpp:(.text._ZNK3ros9Publisher7publishIN8std_msgs18Float32MultiArray_ISaIvEEEEEvRKT_[_ZNK3ros9Publisher7publishIN8std_msgs18Float32MultiArray_ISaIvEEEEEvRKT_]+0xa41): undefined reference to `ros::console::initialize()'
capture_camera_img.cpp:(.text._ZNK3ros9Publisher7publishIN8std_msgs18Float32MultiArray_ISaIvEEEEEvRKT_[_ZNK3ros9Publisher7publishIN8std_msgs18Float32MultiArray_ISaIvEEEEEvRKT_]+0xa90): undefined reference to `ros::console::initializeLogLocation(ros::console::LogLocation*, std::__cxx11::basic_string<char, std::char_traits<char>, std::allocator<char> > const&, ros::console::levels::Level)'
capture_camera_img.cpp:(.text._ZNK3ros9Publisher7publishIN8std_msgs18Float32MultiArray_ISaIvEEEEEvRKT_[_ZNK3ros9Publisher7publishIN8std_msgs18Float32MultiArray_ISaIvEEEEEvRKT_]+0xace): undefined reference to `ros::console::setLogLocationLevel(ros::console::LogLocation*, ros::console::levels::Level)'
capture_camera_img.cpp:(.text._ZNK3ros9Publisher7publishIN8std_msgs18Float32MultiArray_ISaIvEEEEEvRKT_[_ZNK3ros9Publisher7publishIN8std_msgs18Float32MultiArray_ISaIvEEEEEvRKT_]+0xad8): undefined reference to `ros::console::checkLogLocationEnabled(ros::console::LogLocation*)'
capture_camera_img.cpp:(.text._ZNK3ros9Publisher7publishIN8std_msgs18Float32MultiArray_ISaIvEEEEEvRKT_[_ZNK3ros9Publisher7publishIN8std_msgs18Float32MultiArray_ISaIvEEEEEvRKT_]+0xb2a): undefined reference to `ros::console::print(ros::console::FilterBase*, void*, ros::console::levels::Level, char const*, int, char const*, char const*, ...)'
capture_camera_img.cpp:(.text._ZNK3ros9Publisher7publishIN8std_msgs18Float32MultiArray_ISaIvEEEEEvRKT_[_ZNK3ros9Publisher7publishIN8std_msgs18Float32MultiArray_ISaIvEEEEEvRKT_]+0xbfc): undefined reference to `ros::Publisher::publish(boost::function<ros::SerializedMessage ()> const&, ros::SerializedMessage&) const'
CMakeFiles/capture_camera_img_node.dir/src/capture_camera_img.cpp.o: In function `void ros::serialization::Serializer<unsigned int>::write<ros::serialization::OStream>(ros::serialization::OStream&, unsigned int)':
capture_camera_img.cpp:(.text._ZN3ros13serialization10SerializerIjE5writeINS0_7OStreamEEEvRT_j[_ZN3ros13serialization10SerializerIjE5writeINS0_7OStreamEEEvRT_j]+0x53): undefined reference to `ros::serialization::throwStreamOverrun()'
CMakeFiles/capture_camera_img_node.dir/src/capture_camera_img.cpp.o: In function `void ros::serialization::Serializer<std::__cxx11::basic_string<char, std::char_traits<char>, std::allocator<char> > >::write<ros::serialization::OStream>(ros::serialization::OStream&, std::__cxx11::basic_string<char, std::char_traits<char>, std::allocator<char> > const&)':
capture_camera_img.cpp:(.text._ZN3ros13serialization10SerializerINSt7__cxx1112basic_stringIcSt11char_traitsIcESaIcEEEE5writeINS0_7OStreamEEEvRT_RKS7_[_ZN3ros13serialization10SerializerINSt7__cxx1112basic_stringIcSt11char_traitsIcESaIcEEEE5writeINS0_7OStreamEEEvRT_RKS7_]+0xad): undefined reference to `ros::serialization::throwStreamOverrun()'
CMakeFiles/capture_camera_img_node.dir/src/capture_camera_img.cpp.o: In function `void ros::serialization::Serializer<int>::write<ros::serialization::OStream>(ros::serialization::OStream&, int)':
capture_camera_img.cpp:(.text._ZN3ros13serialization10SerializerIiE5writeINS0_7OStreamEEEvRT_i[_ZN3ros13serialization10SerializerIiE5writeINS0_7OStreamEEEvRT_i]+0x53): undefined reference to `ros::serialization::throwStreamOverrun()'
CMakeFiles/capture_camera_img_node.dir/src/capture_camera_img.cpp.o: In function `void ros::serialization::Serializer<unsigned char>::write<ros::serialization::OStream>(ros::serialization::OStream&, unsigned char)':
capture_camera_img.cpp:(.text._ZN3ros13serialization10SerializerIhE5writeINS0_7OStreamEEEvRT_h[_ZN3ros13serialization10SerializerIhE5writeINS0_7OStreamEEEvRT_h]+0x55): undefined reference to `ros::serialization::throwStreamOverrun()'
CMakeFiles/capture_camera_img_node.dir/src/capture_camera_img.cpp.o: In function `void ros::serialization::VectorSerializer<float, std::allocator<float>, void>::write<ros::serialization::OStream>(ros::serialization::OStream&, std::vector<float, std::allocator<float> > const&)':
capture_camera_img.cpp:(.text._ZN3ros13serialization16VectorSerializerIfSaIfEvE5writeINS0_7OStreamEEEvRT_RKSt6vectorIfS2_E[_ZN3ros13serialization16VectorSerializerIfSaIfEvE5writeINS0_7OStreamEEEvRT_RKSt6vectorIfS2_E]+0xc1): undefined reference to `ros::serialization::throwStreamOverrun()'
CMakeFiles/capture_camera_img_node.dir/src/capture_camera_img.cpp.o:capture_camera_img.cpp:(.text._ZN3ros13serialization10SerializerIdE5writeINS0_7OStreamEEEvRT_d[_ZN3ros13serialization10SerializerIdE5writeINS0_7OStreamEEEvRT_d]+0x55): more undefined references to `ros::serialization::throwStreamOverrun()' follow
CMakeFiles/capture_camera_img_node.dir/src/capture_camera_img.cpp.o: In function `ros::SubscriptionCallbackHelperT<boost::shared_ptr<sensor_msgs::Image_<std::allocator<void> > const> const&, void>::deserialize(ros::SubscriptionCallbackHelperDeserializeParams const&)':
capture_camera_img.cpp:(.text._ZN3ros27SubscriptionCallbackHelperTIRKN5boost10shared_ptrIKN11sensor_msgs6Image_ISaIvEEEEEvE11deserializeERKNS_43SubscriptionCallbackHelperDeserializeParamsE[_ZN3ros27SubscriptionCallbackHelperTIRKN5boost10shared_ptrIKN11sensor_msgs6Image_ISaIvEEEEEvE11deserializeERKNS_43SubscriptionCallbackHelperDeserializeParamsE]+0x61): undefined reference to `ros::console::g_initialized'
capture_camera_img.cpp:(.text._ZN3ros27SubscriptionCallbackHelperTIRKN5boost10shared_ptrIKN11sensor_msgs6Image_ISaIvEEEEEvE11deserializeERKNS_43SubscriptionCallbackHelperDeserializeParamsE[_ZN3ros27SubscriptionCallbackHelperTIRKN5boost10shared_ptrIKN11sensor_msgs6Image_ISaIvEEEEEvE11deserializeERKNS_43SubscriptionCallbackHelperDeserializeParamsE]+0x71): undefined reference to `ros::console::initialize()'
capture_camera_img.cpp:(.text._ZN3ros27SubscriptionCallbackHelperTIRKN5boost10shared_ptrIKN11sensor_msgs6Image_ISaIvEEEEEvE11deserializeERKNS_43SubscriptionCallbackHelperDeserializeParamsE[_ZN3ros27SubscriptionCallbackHelperTIRKN5boost10shared_ptrIKN11sensor_msgs6Image_ISaIvEEEEEvE11deserializeERKNS_43SubscriptionCallbackHelperDeserializeParamsE]+0xba): undefined reference to `ros::console::initializeLogLocation(ros::console::LogLocation*, std::__cxx11::basic_string<char, std::char_traits<char>, std::allocator<char> > const&, ros::console::levels::Level)'
capture_camera_img.cpp:(.text._ZN3ros27SubscriptionCallbackHelperTIRKN5boost10shared_ptrIKN11sensor_msgs6Image_ISaIvEEEEEvE11deserializeERKNS_43SubscriptionCallbackHelperDeserializeParamsE[_ZN3ros27SubscriptionCallbackHelperTIRKN5boost10shared_ptrIKN11sensor_msgs6Image_ISaIvEEEEEvE11deserializeERKNS_43SubscriptionCallbackHelperDeserializeParamsE]+0xf4): undefined reference to `ros::console::setLogLocationLevel(ros::console::LogLocation*, ros::console::levels::Level)'
capture_camera_img.cpp:(.text._ZN3ros27SubscriptionCallbackHelperTIRKN5boost10shared_ptrIKN11sensor_msgs6Image_ISaIvEEEEEvE11deserializeERKNS_43SubscriptionCallbackHelperDeserializeParamsE[_ZN3ros27SubscriptionCallbackHelperTIRKN5boost10shared_ptrIKN11sensor_msgs6Image_ISaIvEEEEEvE11deserializeERKNS_43SubscriptionCallbackHelperDeserializeParamsE]+0xfe): undefined reference to `ros::console::checkLogLocationEnabled(ros::console::LogLocation*)'
capture_camera_img.cpp:(.text._ZN3ros27SubscriptionCallbackHelperTIRKN5boost10shared_ptrIKN11sensor_msgs6Image_ISaIvEEEEEvE11deserializeERKNS_43SubscriptionCallbackHelperDeserializeParamsE[_ZN3ros27SubscriptionCallbackHelperTIRKN5boost10shared_ptrIKN11sensor_msgs6Image_ISaIvEEEEEvE11deserializeERKNS_43SubscriptionCallbackHelperDeserializeParamsE]+0x175): undefined reference to `ros::console::print(ros::console::FilterBase*, void*, ros::console::levels::Level, char const*, int, char const*, char const*, ...)'
CMakeFiles/capture_camera_img_node.dir/src/capture_camera_img.cpp.o: In function `void ros::serialization::Serializer<unsigned int>::read<ros::serialization::IStream>(ros::serialization::IStream&, unsigned int&)':
capture_camera_img.cpp:(.text._ZN3ros13serialization10SerializerIjE4readINS0_7IStreamEEEvRT_Rj[_ZN3ros13serialization10SerializerIjE4readINS0_7IStreamEEEvRT_Rj]+0x54): undefined reference to `ros::serialization::throwStreamOverrun()'
CMakeFiles/capture_camera_img_node.dir/src/capture_camera_img.cpp.o: In function `void ros::serialization::Serializer<std::__cxx11::basic_string<char, std::char_traits<char>, std::allocator<char> > >::read<ros::serialization::IStream>(ros::serialization::IStream&, std::__cxx11::basic_string<char, std::char_traits<char>, std::allocator<char> >&)':
capture_camera_img.cpp:(.text._ZN3ros13serialization10SerializerINSt7__cxx1112basic_stringIcSt11char_traitsIcESaIcEEEE4readINS0_7IStreamEEEvRT_RS7_[_ZN3ros13serialization10SerializerINSt7__cxx1112basic_stringIcSt11char_traitsIcESaIcEEEE4readINS0_7IStreamEEEvRT_RS7_]+0x99): undefined reference to `ros::serialization::throwStreamOverrun()'
CMakeFiles/capture_camera_img_node.dir/src/capture_camera_img.cpp.o: In function `void ros::serialization::Serializer<unsigned char>::read<ros::serialization::IStream>(ros::serialization::IStream&, unsigned char&)':
capture_camera_img.cpp:(.text._ZN3ros13serialization10SerializerIhE4readINS0_7IStreamEEEvRT_Rh[_ZN3ros13serialization10SerializerIhE4readINS0_7IStreamEEEvRT_Rh]+0x54): undefined reference to `ros::serialization::throwStreamOverrun()'
CMakeFiles/capture_camera_img_node.dir/src/capture_camera_img.cpp.o: In function `void ros::serialization::VectorSerializer<unsigned char, std::allocator<unsigned char>, void>::read<ros::serialization::IStream>(ros::serialization::IStream&, std::vector<unsigned char, std::allocator<unsigned char> >&)':
capture_camera_img.cpp:(.text._ZN3ros13serialization16VectorSerializerIhSaIhEvE4readINS0_7IStreamEEEvRT_RSt6vectorIhS2_E[_ZN3ros13serialization16VectorSerializerIhSaIhEvE4readINS0_7IStreamEEEvRT_RSt6vectorIhS2_E]+0xb1): undefined reference to `ros::serialization::throwStreamOverrun()'
collect2: error: ld returned 1 exit status
make[2]: *** [/root/catkin_ws/devel/.private/capture_camera_img/lib/capture_camera_img/capture_camera_img_node] Error 1
make[1]: *** [CMakeFiles/capture_camera_img_node.dir/all] Error 2
make: *** [all] Error 2
